[[ -1.00100038,  -1.32586156,  -2.86614971,  18.11550273],       [ -1.03801399,  -0.85958643,  -1.05130989,  -0.29476612],       [ -1.12831084,  -2.08557589,  -2.62918109,  -0.31325943],       [ 18.11550273,  18.11550273,  18.11550273,  -1.26120101]]
[-1.5561903373108046, -1.8421601007386068, -1.3989146623695632, -1.9428515794407448, -2.3116618391792736, -2.5003045882927184, -2.3135419280481866, -1.4802685276564511, -1.0229615774996401, -1.021808507866691, -1.0110221510369235, -1.2989885402366943, -1.3545831840413709, -1.1012251769245676, -1.0936300836638511, -1.057065757986408, -0.9692785017190052, -0.44965180104787145, -0.1333722853195172, 0.039499744757841772, -0.082779058637360903, 0.043111040996184388, 0.0039737288803936132]
[[ 0.        ,  1.12752619,  1.05576272,  0.96998048],       [ 0.97595722,  0.        ,  1.16960829,  0.97767108],       [ 0.68310076,  1.03322524,  0.        ,  1.11640117],       [ 0.91572915,  0.91552899,  1.05950871,  0.        ]]
[-1.9621004945906619, -1.4501226706717676, -1.7416688294906593, -1.6362778743790973, -2.4092876966700629, -1.9362184092802392, -8.4452964570267994, -1.62774560679949, -0.86950227036114702, -0.81858813803989627, -1.8586202573455382, -1.9306725335297636, -1.4253863946743752, -2.1500381828907154, -1.902934150156594, -1.738777250178301, -1.0962490934208786, -0.41133028808213534, -0.11757022498666557, -0.058229190441608084, -0.1743297638374858, 0.051238304176284701]
[-2.3905533476285026, -2.3855607752215824, -3.1046278726654548, -2.4385710166158341, -1.6252306978538993, -1.8453676089201285, -2.8421036867530418, -2.3003864137987109, -1.8486396779099463, -2.260992778002934, -2.4185377034892293, -1.7157597266605475, -1.4309793206504315, -1.7286513848405269, -1.9498155677460018, -1.6478625154117634, -0.88148066371653, -0.31621799837065245, -0.13103352500994039, -0.014766699635451691, -0.048972727914978101, 0.03414617759890707, -0.040595399447234726]
