[[  0.26118559,  -2.20913792,  -2.32136655],       [  0.26169916,  -4.05680012,  -3.51467373],       [  0.78950035,  12.93964481,  12.93964481],       [ 12.93964481,  -4.16153877,  -3.5708701 ]]
[-1.6015621502188946, -1.2784893731160598, -1.8404551651372425, -2.0484015585283295, -1.9255957530433532, -1.537003734296337, -1.7658974739645659, -1.1335500296563665, -1.4873547884873159, -1.0644034251662422, -1.271687448566432, -1.1355042236221684, -1.7238172033198564, -1.695274808720536, -1.8595562997418646, -2.1411668345873096, -1.5215685618647801, -1.2779610358433835, -1.0567709798488381, -0.46371103599614028, 0.36019536774628491, 0.35769071866959301, 0.37830295133379482, 0.33283660550079469]
[[ 0.        ,  1.14836282,  0.94171855,  1.05089622],       [ 0.89545994,  0.        ,  1.09322   ,  0.88623285],       [ 0.68025402,  1.09623598,  0.        ,  1.090827  ],       [ 0.9956022 ,  0.97613542,  1.145055  ,  0.        ]]
[-1.9238204735306639, -2.3553322246864825, -2.5514404144381415, -2.7036333322427759, -2.1655572121383013, -2.449000189899134, -2.2662705343591432, -2.2373213709353661, -2.2534860445291121, -2.775180151095797, -2.7414061141251733, -2.7674003210020128, -3.5859962687125915, -3.7232327007944708, -4.0917071097668698, -4.1356631464168405, -3.1884964866656667, -1.2755510407472901, -1.034126365197525, -0.23964560485866571, 0.0089186101311640401, 0.2345373480250264]
[-1.7454958468354267, -1.6753273661307113, -4.0673007278576687, -4.0976362444668952, -3.2045173739062074, -3.0619443969019011, -2.8293040284635085, -2.8128643256089214, -3.3967435911677542, -3.2316171264740645, -2.8835005389770787, -3.0724826782801866, -3.5746922770753193, -3.5797201356589392, -4.1346905340028686, -3.5593884371496025, -2.9667643367401886, -1.2201099816319092, -0.39419401512962443, -0.13376264660311271, -0.068720231185912001, -0.013454867197750103, -0.0003649900895740031, -0.0093268087858552531]
