[[  0.1330088 ,  -1.84346963,  -2.10974245],       [  0.05002798,  -3.16041803,  -3.28905303],       [  0.44779953,  10.35171585,  10.35171585],       [ 10.35171585,  -3.13563315,  -3.42350409]]
[-1.5749082153606708, -1.2772359039441439, -1.8417013652145384, -2.0264987077752918, -1.9598309957103663, -1.408506370999389, -1.6076206478250468, -1.1844235291331393, -1.7883614149697977, -1.2695571283243767, -1.4148793793730405, -1.5976509103443937, -2.5095273875179878, -3.1082710686025701, -3.3345231569370166, -9.9422431785994583, -2.5954857750116691, -2.0483820401931747, -1.7727281708503209, -0.76171862793784795, 0.18022961907480747, 0.15579604998597296, 0.18837556126078175, 0.13827257732994527]
[[ 0.        ,  1.11947306,  0.91313349,  1.02069181],       [ 0.93113138,  0.        ,  1.07705649,  0.93766772],       [ 0.72815056,  1.1024253 ,  0.        ,  1.10852094],       [ 0.99977952,  0.95654541,  1.10542431,  0.        ]]
[-2.1890530460720936, -2.499642036755632, -2.7505028932692328, -2.5481787031861951, -2.0023318514781057, -2.2594873320980899, -2.2076443315026801, -2.8210070289221805, -2.3303348041422072, -9.9409988258375357, -9.9417804790747599, -9.9436260960229816, -9.9437272186832928, -9.9438282239923605, -9.9437272186832928, -9.9437272186832928, -8.7192602573221212, -2.356152765752543, -1.929502996616117, -0.43218008956352827, -0.042271484280800464, 9.9999975544256952]
[-1.6777291973937625, -1.679557859384585, -3.4124460102937131, -3.4206344420202175, -3.2924031560175679, -3.0501035864148616, -2.6708655648175506, -2.9785943323694433, -9.9436869226309188, -9.9436812103897712, -9.9436661483592825, -9.9437272186832928, -9.9437272186832928, -9.9437272186832928, -9.9437272186832928, -9.9371673953213531, -3.3687842618704629, -2.131447600732526, -1.1100111108888664, -0.2733794307290307, -0.02066654523851702, 0.00011802194913500067, -0.016228089150590663, 0.041355741340813254]
