[[  4.43677394e-02,  -1.93757119e+00,  -2.11713970e+00],       [  5.31904884e-03,  -3.25488140e+00,  -3.32540873e+00],       [  5.04180352e-01,   1.03517158e+01,   1.03517158e+01],       [  1.03517158e+01,  -3.23731873e+00,  -3.49942739e+00]]
[-1.63756798230666, -1.4304205539798485, -1.8005877048738239, -1.9458438208535802, -1.8761246976171211, -1.5903058883145846, -1.8085414438790115, -1.3594055754216685, -1.6500270427329906, -1.4366768680430506, -1.8753908837396491, -1.6150961994273554, -2.3746333356608456, -2.4485890751569297, -2.7028917083135999, -3.1749841946567612, -2.111403981489191, -1.3372587451345563, -0.68123787873636643, -0.29708763127742421, 0.045518107344020627, 0.10392051958486295, 0.14852883155588784, 0.097986341545390751]
[[ 0.        ,  1.17474328,  0.9667179 ,  1.02535278],       [ 0.9422211 ,  0.        ,  1.11435715,  0.92542721],       [ 0.66442787,  1.06273696,  0.        ,  1.06945154],       [ 0.98940406,  0.94487523,  1.12028492,  0.        ]]
[-1.8886507971056286, -1.8002853879990319, -2.5546610029819679, -2.5830924068683023, -2.0501659372096723, -2.1710973289842244, -2.2384642739317342, -2.3099931864350234, -2.3086078767476197, -3.1133511296119671, -3.4328023547800774, -3.2252752414936547, -9.945638878133952, -9.9459257569034438, -9.9454651962440987, -8.734389187227853, -2.7702383806063624, -1.2285130401426982, -0.85427387050513048, -0.10090373250935145, -0.0076107440740147518, 0.10027824610649631]
[-1.6989344691826518, -1.5904375257966259, -3.3268652211202769, -3.5610817633285814, -3.3152356171414734, -3.020509798179738, -2.8424107016459961, -3.1551913768299618, -9.945638878133952, -9.945638878133952, -9.945638878133952, -9.945638878133952, -9.945638878133952, -9.9455802096874759, -9.945638878133952, -3.5899652293722855, -2.7054254594340281, -0.87945472244165046, -0.27114269095369614, -0.030277760447143288, 0.023095344319471741, 0.016691317280844296, 0.029957203983754861, 0.0073987386960461038]
