[[  0.18768787,  -2.36114289,  -2.50949978],       [  0.20828268,  -4.33546439,  -3.48923022],       [  1.00604109,  18.11550273,  18.11550273],       [ 18.11550273,  -5.14667949,  -3.5384636 ]]
[-1.7453007012016661, -1.2755209072599205, -1.8002948332631887, -1.9318819603188433, -1.6678841784945275, -1.6530466642656514, -1.8983253446631823, -1.0817336959986079, -1.3223877395790904, -0.99827575229144927, -1.2760069640437144, -1.0729832721136181, -1.5607057897834951, -1.4737531193211741, -1.2975221659182792, -1.010722084037786, -0.43274318285048902, -0.11819394355640353, -0.17346394062580275, 0.26730091916977794, 0.051710778687565864, 0.089033792214709903, 0.075498049646148258, 0.04605473958882688]
[[ 0.        ,  1.16640494,  0.96691674,  0.94936009],       [ 0.94070804,  0.        ,  1.18409792,  0.87115781],       [ 0.58222142,  1.1107562 ,  0.        ,  1.04709304],       [ 0.96322919,  0.98889149,  1.2291631 ,  0.        ]]
[-1.5712225259639605, -2.3071798098601661, -2.2594934362109234, -2.8083824752850415, -2.1420002658063368, -2.3471398689023619, -2.1545003796708579, -1.8364907423760537, -2.2328057871398141, -2.5148679458889984, -2.7838303228876544, -1.8695958594350703, -2.4505152069271015, -2.7352279693630486, -1.9507277287656768, -2.1177839030540966, -1.4447328135382906, -0.6661703000167547, -0.23294259121532823, -0.02388783835795143, -0.073660518673159703, -0.19013418913835145]
[-1.6081326960867173, -1.5774934790689332, -2.6027349177119325, -3.6460804377668881, -3.3797431440316816, -2.8891310745067447, -2.7464177776134098, -2.7145066034201477, -3.5049553412398509, -3.0963870314812709, -2.3874828278944698, -1.8259893591459908, -2.5777072457011925, -2.4370803436131947, -1.995787838063015, -1.502704360336236, -0.93708405311340848, -0.49981466195381513, -0.26993325448258643, -0.020368880279629548, -0.015998625275679048, 0.1023450076533344, 0.039306053155332851, 0.042352699948045164]
